digraph Tree {
node [shape=box, style="filled, rounded", color="black", fontname="helvetica"] ;
edge [fontname="helvetica"] ;
0 [label="count <= 47.5\ngini = 0.133\nsamples = 345814\nvalue = [[71750, 274064]\n[277728, 68086]\n[342962, 2852]\n[345037, 777]\n[345779, 35]]", fillcolor="#f2c19e"] ;
1 [label="num_compromised <= 0.5\ngini = 0.062\nsamples = 73100\nvalue = [[69716, 3384]\n[5975, 67125]\n[71319, 1781]\n[72323, 777]\n[73067, 33]]", fillcolor="#eb9f68"] ;
0 -> 1 [labeldistance=2.5, labelangle=45, headlabel="True"] ;
2 [label="dst_host_serror_rate <= 0.935\ngini = 0.048\nsamples = 71549\nvalue = [[69656, 1893]\n[4468, 67081]\n[69768, 1781]\n[70775, 774]\n[71529, 20]]", fillcolor="#ea985d"] ;
1 -> 2 ;
3 [label="dst_host_srv_diff_host_rate <= 0.49\ngini = 0.034\nsamples = 70179\nvalue = [[69572, 607]\n[3111, 67068]\n[68466, 1713]\n[69408, 771]\n[70159, 20]]", fillcolor="#e89253"] ;
2 -> 3 ;
4 [label="flag_RSTR <= 0.5\ngini = 0.025\nsamples = 69240\nvalue = [[68709, 531]\n[2241, 66999]\n[68310, 930]\n[68478, 762]\n[69222, 18]]", fillcolor="#e88d4c"] ;
3 -> 4 ;
5 [label="wrong_fragment <= 0.5\ngini = 0.019\nsamples = 68684\nvalue = [[68200, 484]\n[1701, 66983]\n[68244, 440]\n[67925, 759]\n[68666, 18]]", fillcolor="#e78a48"] ;
4 -> 5 ;
6 [label="hot <= 26.0\ngini = 0.015\nsamples = 68269\nvalue = [[68200, 69]\n[1286, 66983]\n[67829, 440]\n[67510, 759]\n[68251, 18]]", fillcolor="#e68844"] ;
5 -> 6 ;
7 [label="dst_host_diff_srv_rate <= 0.925\ngini = 0.013\nsamples = 68058\nvalue = [[67989, 69]\n[1096, 66962]\n[67618, 440]\n[67489, 569]\n[68040, 18]]", fillcolor="#e68743"] ;
6 -> 7 ;
8 [label="dst_host_same_src_port_rate <= 0.995\ngini = 0.011\nsamples = 67912\nvalue = [[67843, 69]\n[975, 66937]\n[67592, 320]\n[67344, 568]\n[67894, 18]]", fillcolor="#e68642"] ;
7 -> 8 ;
9 [label="num_failed_logins <= 0.5\ngini = 0.004\nsamples = 63665\nvalue = [[63630, 35]\n[304, 63361]\n[63519, 146]\n[63551, 114]\n[63656, 9]]", fillcolor="#e5833c"] ;
8 -> 9 ;
10 [label="same_srv_rate <= 0.195\ngini = 0.003\nsamples = 63621\nvalue = [[63586, 35]\n[266, 63355]\n[63475, 146]\n[63544, 77]\n[63613, 8]]", fillcolor="#e5833c"] ;
9 -> 10 ;
11 [label="src_bytes <= 18.0\ngini = 0.203\nsamples = 138\nvalue = [[131, 7]\n[53, 85]\n[92, 46]\n[138, 0]\n[138, 0]]", fillcolor="#f9e3d3"] ;
10 -> 11 ;
12 [label="dst_host_rerror_rate <= 0.925\ngini = 0.105\nsamples = 53\nvalue = [[46, 7]\n[52, 1]\n[8, 45]\n[53, 0]\n[53, 0]]", fillcolor="#efb388"] ;
11 -> 12 ;
13 [label="count <= 8.5\ngini = 0.017\nsamples = 46\nvalue = [[46, 0]\n[45, 1]\n[1, 45]\n[46, 0]\n[46, 0]]", fillcolor="#e78946"] ;
12 -> 13 ;
14 [label="gini = 0.0\nsamples = 1\nvalue = [[1, 0]\n[0, 1]\n[1, 0]\n[1, 0]\n[1, 0]]", fillcolor="#e58139"] ;
13 -> 14 ;
15 [label="gini = 0.0\nsamples = 45\nvalue = [[45, 0]\n[45, 0]\n[0, 45]\n[45, 0]\n[45, 0]]", fillcolor="#e58139"] ;
13 -> 15 ;
16 [label="gini = 0.0\nsamples = 7\nvalue = [[0, 7]\n[7, 0]\n[7, 0]\n[7, 0]\n[7, 0]]", fillcolor="#e58139"] ;
12 -> 16 ;
17 [label="rerror_rate <= 0.145\ngini = 0.009\nsamples = 85\nvalue = [[85, 0]\n[1, 84]\n[84, 1]\n[85, 0]\n[85, 0]]", fillcolor="#e68540"] ;
11 -> 17 ;
18 [label="gini = 0.0\nsamples = 84\nvalue = [[84, 0]\n[0, 84]\n[84, 0]\n[84, 0]\n[84, 0]]", fillcolor="#e58139"] ;
17 -> 18 ;
19 [label="gini = 0.0\nsamples = 1\nvalue = [[1, 0]\n[1, 0]\n[0, 1]\n[1, 0]\n[1, 0]]", fillcolor="#e58139"] ;
17 -> 19 ;
20 [label="dst_host_serror_rate <= 0.115\ngini = 0.003\nsamples = 63483\nvalue = [[63455, 28]\n[213, 63270]\n[63383, 100]\n[63406, 77]\n[63475, 8]]", fillcolor="#e5823b"] ;
10 -> 20 ;
21 [label="src_bytes <= 3663021.5\ngini = 0.002\nsamples = 63282\nvalue = [[63262, 20]\n[156, 63126]\n[63204, 78]\n[63232, 50]\n[63274, 8]]", fillcolor="#e5823a"] ;
20 -> 21 ;
22 [label="flag_OTH <= 0.5\ngini = 0.002\nsamples = 63277\nvalue = [[63257, 20]\n[151, 63126]\n[63199, 78]\n[63232, 45]\n[63269, 8]]", fillcolor="#e5823a"] ;
21 -> 22 ;
23 [label="service_ecr_i <= 0.5\ngini = 0.002\nsamples = 63272\nvalue = [[63252, 20]\n[147, 63125]\n[63198, 74]\n[63227, 45]\n[63264, 8]]", fillcolor="#e5823a"] ;
22 -> 23 ;
24 [label="root_shell <= 0.5\ngini = 0.002\nsamples = 63264\nvalue = [[63249, 15]\n[142, 63122]\n[63190, 74]\n[63219, 45]\n[63256, 8]]", fillcolor="#e5823a"] ;
23 -> 24 ;
25 [label="same_srv_rate <= 0.895\ngini = 0.002\nsamples = 63249\nvalue = [[63234, 15]\n[136, 63113]\n[63175, 74]\n[63208, 41]\n[63243, 6]]", fillcolor="#e5823a"] ;
24 -> 25 ;
26 [label="src_bytes <= 7.0\ngini = 0.027\nsamples = 1407\nvalue = [[1402, 5]\n[49, 1358]\n[1365, 42]\n[1405, 2]\n[1407, 0]]", fillcolor="#e88e4d"] ;
25 -> 26 ;
27 [label="dst_host_rerror_rate <= 0.945\ngini = 0.112\nsamples = 50\nvalue = [[45, 5]\n[47, 3]\n[8, 42]\n[50, 0]\n[50, 0]]", fillcolor="#f0b78e"] ;
26 -> 27 ;
28 [label="dst_host_count <= 225.5\ngini = 0.05\nsamples = 45\nvalue = [[45, 0]\n[42, 3]\n[3, 42]\n[45, 0]\n[45, 0]]", fillcolor="#ea995f"] ;
27 -> 28 ;
29 [label="gini = 0.0\nsamples = 3\nvalue = [[3, 0]\n[0, 3]\n[3, 0]\n[3, 0]\n[3, 0]]", fillcolor="#e58139"] ;
28 -> 29 ;
30 [label="gini = 0.0\nsamples = 42\nvalue = [[42, 0]\n[42, 0]\n[0, 42]\n[42, 0]\n[42, 0]]", fillcolor="#e58139"] ;
28 -> 30 ;
31 [label="gini = 0.0\nsamples = 5\nvalue = [[0, 5]\n[5, 0]\n[5, 0]\n[5, 0]\n[5, 0]]", fillcolor="#e58139"] ;
27 -> 31 ;
32 [label="dst_host_srv_serror_rate <= 0.045\ngini = 0.001\nsamples = 1357\nvalue = [[1357, 0]\n[2, 1355]\n[1357, 0]\n[1355, 2]\n[1357, 0]]", fillcolor="#e5823a"] ;
26 -> 32 ;
33 [label="gini = 0.0\nsamples = 1355\nvalue = [[1355, 0]\n[0, 1355]\n[1355, 0]\n[1355, 0]\n[1355, 0]]", fillcolor="#e58139"] ;
32 -> 33 ;
34 [label="gini = 0.0\nsamples = 2\nvalue = [[2, 0]\n[2, 0]\n[2, 0]\n[0, 2]\n[2, 0]]", fillcolor="#e58139"] ;
32 -> 34 ;
35 [label="flag_S2 <= 0.5\ngini = 0.001\nsamples = 61842\nvalue = [[61832, 10]\n[87, 61755]\n[61810, 32]\n[61803, 39]\n[61836, 6]]", fillcolor="#e5823a"] ;
25 -> 35 ;
36 [label="land <= 0.5\ngini = 0.001\nsamples = 61827\nvalue = [[61821, 6]\n[83, 61744]\n[61795, 32]\n[61788, 39]\n[61821, 6]]", fillcolor="#e5823a"] ;
35 -> 36 ;
37 [label="flag_RSTOS0 <= 0.5\ngini = 0.001\nsamples = 61826\nvalue = [[61821, 5]\n[82, 61744]\n[61794, 32]\n[61787, 39]\n[61820, 6]]", fillcolor="#e5823a"] ;
36 -> 37 ;
38 [label="num_file_creations <= 15.0\ngini = 0.001\nsamples = 61825\nvalue = [[61820, 5]\n[81, 61744]\n[61794, 31]\n[61786, 39]\n[61819, 6]]", fillcolor="#e5823a"] ;
37 -> 38 ;
39 [label="num_file_creations <= 3.0\ngini = 0.001\nsamples = 61824\nvalue = [[61819, 5]\n[80, 61744]\n[61793, 31]\n[61786, 38]\n[61818, 6]]", fillcolor="#e5813a"] ;
38 -> 39 ;
40 [label="service_ftp_data <= 0.5\ngini = 0.001\nsamples = 61822\nvalue = [[61817, 5]\n[79, 61743]\n[61791, 31]\n[61784, 38]\n[61817, 5]]", fillcolor="#e5813a"] ;
39 -> 40 ;
41 [label="src_bytes <= 52199.5\ngini = 0.001\nsamples = 59293\nvalue = [[59288, 5]\n[49, 59244]\n[59262, 31]\n[59285, 8]\n[59288, 5]]", fillcolor="#e5813a"] ;
40 -> 41 ;
42 [label="service_ftp <= 0.5\ngini = 0.001\nsamples = 59279\nvalue = [[59278, 1]\n[45, 59234]\n[59248, 31]\n[59271, 8]\n[59274, 5]]", fillcolor="#e58139"] ;
41 -> 42 ;
43 [label="dst_host_same_src_port_rate <= 0.575\ngini = 0.0\nsamples = 59035\nvalue = [[59034, 1]\n[36, 58999]\n[59004, 31]\n[59035, 0]\n[59031, 4]]", fillcolor="#e58139"] ;
42 -> 43 ;
44 [label="dst_host_srv_count <= 2.5\ngini = 0.0\nsamples = 57177\nvalue = [[57176, 1]\n[15, 57162]\n[57167, 10]\n[57177, 0]\n[57173, 4]]", fillcolor="#e58139"] ;
43 -> 44 ;
45 [label="service_private <= 0.5\ngini = 0.042\nsamples = 164\nvalue = [[163, 1]\n[9, 155]\n[158, 6]\n[164, 0]\n[162, 2]]", fillcolor="#e99559"] ;
44 -> 45 ;
46 [label="protocol_type_icmp <= 0.5\ngini = 0.029\nsamples = 161\nvalue = [[161, 0]\n[6, 155]\n[157, 4]\n[161, 0]\n[159, 2]]", fillcolor="#e88f4f"] ;
45 -> 46 ;
47 [label="service_other <= 0.5\ngini = 0.016\nsamples = 151\nvalue = [[151, 0]\n[3, 148]\n[150, 1]\n[151, 0]\n[149, 2]]", fillcolor="#e78945"] ;
46 -> 47 ;
48 [label="gini = 0.0\nsamples = 129\nvalue = [[129, 0]\n[0, 129]\n[129, 0]\n[129, 0]\n[129, 0]]", fillcolor="#e58139"] ;
47 -> 48 ;
49 [label="src_bytes <= 88.5\ngini = 0.098\nsamples = 22\nvalue = [[22, 0]\n[3, 19]\n[21, 1]\n[22, 0]\n[20, 2]]", fillcolor="#efb083"] ;
47 -> 49 ;
50 [label="dst_host_diff_srv_rate <= 0.345\ngini = 0.178\nsamples = 3\nvalue = [[3, 0]\n[3, 0]\n[2, 1]\n[3, 0]\n[1, 2]]", fillcolor="#f7d7c0"] ;
49 -> 50 ;
51 [label="gini = 0.0\nsamples = 2\nvalue = [[2, 0]\n[2, 0]\n[2, 0]\n[2, 0]\n[0, 2]]", fillcolor="#e58139"] ;
50 -> 51 ;
52 [label="gini = 0.0\nsamples = 1\nvalue = [[1, 0]\n[1, 0]\n[0, 1]\n[1, 0]\n[1, 0]]", fillcolor="#e58139"] ;
50 -> 52 ;
53 [label="gini = 0.0\nsamples = 19\nvalue = [[19, 0]\n[0, 19]\n[19, 0]\n[19, 0]\n[19, 0]]", fillcolor="#e58139"] ;
49 -> 53 ;
54 [label="dst_host_count <= 78.5\ngini = 0.168\nsamples = 10\nvalue = [[10, 0]\n[3, 7]\n[7, 3]\n[10, 0]\n[10, 0]]", fillcolor="#f6d2b8"] ;
46 -> 54 ;
55 [label="service_tim_i <= 0.5\ngini = 0.15\nsamples = 4\nvalue = [[4, 0]\n[3, 1]\n[1, 3]\n[4, 0]\n[4, 0]]", fillcolor="#f4c9ab"] ;
54 -> 55 ;
56 [label="gini = 0.0\nsamples = 3\nvalue = [[3, 0]\n[3, 0]\n[0, 3]\n[3, 0]\n[3, 0]]", fillcolor="#e58139"] ;
55 -> 56 ;
57 [label="gini = 0.0\nsamples = 1\nvalue = [[1, 0]\n[0, 1]\n[1, 0]\n[1, 0]\n[1, 0]]", fillcolor="#e58139"] ;
55 -> 57 ;
58 [label="gini = 0.0\nsamples = 6\nvalue = [[6, 0]\n[0, 6]\n[6, 0]\n[6, 0]\n[6, 0]]", fillcolor="#e58139"] ;
54 -> 58 ;
59 [label="dst_host_rerror_rate <= 0.88\ngini = 0.178\nsamples = 3\nvalue = [[2, 1]\n[3, 0]\n[1, 2]\n[3, 0]\n[3, 0]]", fillcolor="#f7d7c0"] ;
45 -> 59 ;
60 [label="gini = 0.0\nsamples = 2\nvalue = [[2, 0]\n[2, 0]\n[0, 2]\n[2, 0]\n[2, 0]]", fillcolor="#e58139"] ;
59 -> 60 ;
61 [label="gini = 0.0\nsamples = 1\nvalue = [[0, 1]\n[1, 0]\n[1, 0]\n[1, 0]\n[1, 0]]", fillcolor="#e58139"] ;
59 -> 61 ;
62 [label="service_other <= 0.5\ngini = 0.0\nsamples = 57013\nvalue = [[57013, 0]\n[6, 57007]\n[57009, 4]\n[57013, 0]\n[57011, 2]]", fillcolor="#e58139"] ;
44 -> 62 ;
63 [label="service_telnet <= 0.5\ngini = 0.0\nsamples = 56996\nvalue = [[56996, 0]\n[5, 56991]\n[56993, 3]\n[56996, 0]\n[56994, 2]]", fillcolor="#e58139"] ;
62 -> 63 ;
64 [label="dst_host_same_srv_rate <= 0.195\ngini = 0.0\nsamples = 56915\nvalue = [[56915, 0]\n[3, 56912]\n[56912, 3]\n[56915, 0]\n[56915, 0]]", fillcolor="#e58139"] ;
63 -> 64 ;
65 [label="service_private <= 0.5\ngini = 0.002\nsamples = 1142\nvalue = [[1142, 0]\n[3, 1139]\n[1139, 3]\n[1142, 0]\n[1142, 0]]", fillcolor="#e5823b"] ;
64 -> 65 ;
66 [label="gini = 0.0\nsamples = 1138\nvalue = [[1138, 0]\n[0, 1138]\n[1138, 0]\n[1138, 0]\n[1138, 0]]", fillcolor="#e58139"] ;
65 -> 66 ;
67 [label="src_bytes <= 102.5\ngini = 0.15\nsamples = 4\nvalue = [[4, 0]\n[3, 1]\n[1, 3]\n[4, 0]\n[4, 0]]", fillcolor="#f4c9ab"] ;
65 -> 67 ;
68 [label="gini = 0.0\nsamples = 3\nvalue = [[3, 0]\n[3, 0]\n[0, 3]\n[3, 0]\n[3, 0]]", fillcolor="#e58139"] ;
67 -> 68 ;
69 [label="gini = 0.0\nsamples = 1\nvalue = [[1, 0]\n[0, 1]\n[1, 0]\n[1, 0]\n[1, 0]]", fillcolor="#e58139"] ;
67 -> 69 ;
70 [label="gini = 0.0\nsamples = 55773\nvalue = [[55773, 0]\n[0, 55773]\n[55773, 0]\n[55773, 0]\n[55773, 0]]", fillcolor="#e58139"] ;
64 -> 70 ;
71 [label="dst_host_count <= 10.0\ngini = 0.019\nsamples = 81\nvalue = [[81, 0]\n[2, 79]\n[81, 0]\n[81, 0]\n[79, 2]]", fillcolor="#e78a48"] ;
63 -> 71 ;
72 [label="gini = 0.0\nsamples = 2\nvalue = [[2, 0]\n[2, 0]\n[2, 0]\n[2, 0]\n[0, 2]]", fillcolor="#e58139"] ;
71 -> 72 ;
73 [label="gini = 0.0\nsamples = 79\nvalue = [[79, 0]\n[0, 79]\n[79, 0]\n[79, 0]\n[79, 0]]", fillcolor="#e58139"] ;
71 -> 73 ;
74 [label="dst_host_same_src_port_rate <= 0.375\ngini = 0.044\nsamples = 17\nvalue = [[17, 0]\n[1, 16]\n[16, 1]\n[17, 0]\n[17, 0]]", fillcolor="#e9965b"] ;
62 -> 74 ;
75 [label="gini = 0.0\nsamples = 15\nvalue = [[15, 0]\n[0, 15]\n[15, 0]\n[15, 0]\n[15, 0]]", fillcolor="#e58139"] ;
74 -> 75 ;
76 [label="dst_host_rerror_rate <= 0.255\ngini = 0.2\nsamples = 2\nvalue = [[2, 0]\n[1, 1]\n[1, 1]\n[2, 0]\n[2, 0]]", fillcolor="#f9e2d1"] ;
74 -> 76 ;
77 [label="gini = 0.0\nsamples = 1\nvalue = [[1, 0]\n[0, 1]\n[1, 0]\n[1, 0]\n[1, 0]]", fillcolor="#e58139"] ;
76 -> 77 ;
78 [label="gini = 0.0\nsamples = 1\nvalue = [[1, 0]\n[1, 0]\n[0, 1]\n[1, 0]\n[1, 0]]", fillcolor="#e58139"] ;
76 -> 78 ;
79 [label="service_private <= 0.5\ngini = 0.009\nsamples = 1858\nvalue = [[1858, 0]\n[21, 1837]\n[1837, 21]\n[1858, 0]\n[1858, 0]]", fillcolor="#e68540"] ;
43 -> 79 ;
80 [label="gini = 0.0\nsamples = 1837\nvalue = [[1837, 0]\n[0, 1837]\n[1837, 0]\n[1837, 0]\n[1837, 0]]", fillcolor="#e58139"] ;
79 -> 80 ;
81 [label="gini = 0.0\nsamples = 21\nvalue = [[21, 0]\n[21, 0]\n[0, 21]\n[21, 0]\n[21, 0]]", fillcolor="#e58139"] ;
79 -> 81 ;
82 [label="dst_host_srv_count <= 72.5\ngini = 0.029\nsamples = 244\nvalue = [[244, 0]\n[9, 235]\n[244, 0]\n[236, 8]\n[243, 1]]", fillcolor="#e88f4f"] ;
42 -> 82 ;
83 [label="num_file_creations <= 0.5\ngini = 0.013\nsamples = 239\nvalue = [[239, 0]\n[4, 235]\n[239, 0]\n[236, 3]\n[238, 1]]", fillcolor="#e68743"] ;
82 -> 83 ;
84 [label="dst_host_serror_rate <= 0.065\ngini = 0.003\nsamples = 236\nvalue = [[236, 0]\n[1, 235]\n[236, 0]\n[235, 1]\n[236, 0]]", fillcolor="#e5833c"] ;
83 -> 84 ;
85 [label="gini = 0.0\nsamples = 235\nvalue = [[235, 0]\n[0, 235]\n[235, 0]\n[235, 0]\n[235, 0]]", fillcolor="#e58139"] ;
84 -> 85 ;
86 [label="gini = 0.0\nsamples = 1\nvalue = [[1, 0]\n[1, 0]\n[1, 0]\n[0, 1]\n[1, 0]]", fillcolor="#e58139"] ;
84 -> 86 ;
87 [label="dst_host_rerror_rate <= 0.02\ngini = 0.178\nsamples = 3\nvalue = [[3, 0]\n[3, 0]\n[3, 0]\n[1, 2]\n[2, 1]]", fillcolor="#f7d7c0"] ;
83 -> 87 ;
88 [label="gini = 0.0\nsamples = 1\nvalue = [[1, 0]\n[1, 0]\n[1, 0]\n[1, 0]\n[0, 1]]", fillcolor="#e58139"] ;
87 -> 88 ;
89 [label="gini = 0.0\nsamples = 2\nvalue = [[2, 0]\n[2, 0]\n[2, 0]\n[0, 2]\n[2, 0]]", fillcolor="#e58139"] ;
87 -> 89 ;
90 [label="gini = 0.0\nsamples = 5\nvalue = [[5, 0]\n[5, 0]\n[5, 0]\n[0, 5]\n[5, 0]]", fillcolor="#e58139"] ;
82 -> 90 ;
91 [label="service_http <= 0.5\ngini = 0.163\nsamples = 14\nvalue = [[10, 4]\n[4, 10]\n[14, 0]\n[14, 0]\n[14, 0]]", fillcolor="#f5d0b5"] ;
41 -> 91 ;
92 [label="gini = 0.0\nsamples = 10\nvalue = [[10, 0]\n[0, 10]\n[10, 0]\n[10, 0]\n[10, 0]]", fillcolor="#e58139"] ;
91 -> 92 ;
93 [label="gini = 0.0\nsamples = 4\nvalue = [[0, 4]\n[4, 0]\n[4, 0]\n[4, 0]\n[4, 0]]", fillcolor="#e58139"] ;
91 -> 93 ;
94 [label="src_bytes <= 353.5\ngini = 0.009\nsamples = 2529\nvalue = [[2529, 0]\n[30, 2499]\n[2529, 0]\n[2499, 30]\n[2529, 0]]", fillcolor="#e68640"] ;
40 -> 94 ;
95 [label="src_bytes <= 326.5\ngini = 0.039\nsamples = 543\nvalue = [[543, 0]\n[28, 515]\n[543, 0]\n[515, 28]\n[543, 0]]", fillcolor="#e99457"] ;
94 -> 95 ;
96 [label="gini = 0.0\nsamples = 515\nvalue = [[515, 0]\n[0, 515]\n[515, 0]\n[515, 0]\n[515, 0]]", fillcolor="#e58139"] ;
95 -> 96 ;
97 [label="gini = 0.0\nsamples = 28\nvalue = [[28, 0]\n[28, 0]\n[28, 0]\n[0, 28]\n[28, 0]]", fillcolor="#e58139"] ;
95 -> 97 ;
98 [label="dst_host_count <= 254.5\ngini = 0.001\nsamples = 1986\nvalue = [[1986, 0]\n[2, 1984]\n[1986, 0]\n[1984, 2]\n[1986, 0]]", fillcolor="#e5813a"] ;
94 -> 98 ;
99 [label="gini = 0.0\nsamples = 1786\nvalue = [[1786, 0]\n[0, 1786]\n[1786, 0]\n[1786, 0]\n[1786, 0]]", fillcolor="#e58139"] ;
98 -> 99 ;
100 [label="dst_host_serror_rate <= 0.015\ngini = 0.008\nsamples = 200\nvalue = [[200, 0]\n[2, 198]\n[200, 0]\n[198, 2]\n[200, 0]]", fillcolor="#e6853f"] ;
98 -> 100 ;
101 [label="dst_host_serror_rate <= 0.005\ngini = 0.004\nsamples = 198\nvalue = [[198, 0]\n[1, 197]\n[198, 0]\n[197, 1]\n[198, 0]]", fillcolor="#e5833c"] ;
100 -> 101 ;
102 [label="gini = 0.0\nsamples = 189\nvalue = [[189, 0]\n[0, 189]\n[189, 0]\n[189, 0]\n[189, 0]]", fillcolor="#e58139"] ;
101 -> 102 ;
103 [label="dst_host_diff_srv_rate <= 0.055\ngini = 0.079\nsamples = 9\nvalue = [[9, 0]\n[1, 8]\n[9, 0]\n[8, 1]\n[9, 0]]", fillcolor="#eda775"] ;
101 -> 103 ;
104 [label="gini = 0.0\nsamples = 7\nvalue = [[7, 0]\n[0, 7]\n[7, 0]\n[7, 0]\n[7, 0]]", fillcolor="#e58139"] ;
103 -> 104 ;
105 [label="dst_host_same_src_port_rate <= 0.385\ngini = 0.2\nsamples = 2\nvalue = [[2, 0]\n[1, 1]\n[2, 0]\n[1, 1]\n[2, 0]]", fillcolor="#f9e2d1"] ;
103 -> 105 ;
106 [label="gini = 0.0\nsamples = 1\nvalue = [[1, 0]\n[1, 0]\n[1, 0]\n[0, 1]\n[1, 0]]", fillcolor="#e58139"] ;
105 -> 106 ;
107 [label="gini = 0.0\nsamples = 1\nvalue = [[1, 0]\n[0, 1]\n[1, 0]\n[1, 0]\n[1, 0]]", fillcolor="#e58139"] ;
105 -> 107 ;
108 [label="dst_host_same_srv_rate <= 0.26\ngini = 0.2\nsamples = 2\nvalue = [[2, 0]\n[1, 1]\n[2, 0]\n[1, 1]\n[2, 0]]", fillcolor="#f9e2d1"] ;
100 -> 108 ;
109 [label="gini = 0.0\nsamples = 1\nvalue = [[1, 0]\n[1, 0]\n[1, 0]\n[0, 1]\n[1, 0]]", fillcolor="#e58139"] ;
108 -> 109 ;
110 [label="gini = 0.0\nsamples = 1\nvalue = [[1, 0]\n[0, 1]\n[1, 0]\n[1, 0]\n[1, 0]]", fillcolor="#e58139"] ;
108 -> 110 ;
111 [label="dst_bytes <= 3212.0\ngini = 0.2\nsamples = 2\nvalue = [[2, 0]\n[1, 1]\n[2, 0]\n[2, 0]\n[1, 1]]", fillcolor="#f9e2d1"] ;
39 -> 111 ;
112 [label="gini = 0.0\nsamples = 1\nvalue = [[1, 0]\n[1, 0]\n[1, 0]\n[1, 0]\n[0, 1]]", fillcolor="#e58139"] ;
111 -> 112 ;
113 [label="gini = 0.0\nsamples = 1\nvalue = [[1, 0]\n[0, 1]\n[1, 0]\n[1, 0]\n[1, 0]]", fillcolor="#e58139"] ;
111 -> 113 ;
114 [label="gini = 0.0\nsamples = 1\nvalue = [[1, 0]\n[1, 0]\n[1, 0]\n[0, 1]\n[1, 0]]", fillcolor="#e58139"] ;
38 -> 114 ;
115 [label="gini = 0.0\nsamples = 1\nvalue = [[1, 0]\n[1, 0]\n[0, 1]\n[1, 0]\n[1, 0]]", fillcolor="#e58139"] ;
37 -> 115 ;
116 [label="gini = 0.0\nsamples = 1\nvalue = [[0, 1]\n[1, 0]\n[1, 0]\n[1, 0]\n[1, 0]]", fillcolor="#e58139"] ;
36 -> 116 ;
117 [label="src_bytes <= 33340.0\ngini = 0.156\nsamples = 15\nvalue = [[11, 4]\n[4, 11]\n[15, 0]\n[15, 0]\n[15, 0]]", fillcolor="#f5ccb0"] ;
35 -> 117 ;
118 [label="gini = 0.0\nsamples = 11\nvalue = [[11, 0]\n[0, 11]\n[11, 0]\n[11, 0]\n[11, 0]]", fillcolor="#e58139"] ;
117 -> 118 ;
119 [label="gini = 0.0\nsamples = 4\nvalue = [[0, 4]\n[4, 0]\n[4, 0]\n[4, 0]\n[4, 0]]", fillcolor="#e58139"] ;
117 -> 119 ;
120 [label="hot <= 1.5\ngini = 0.22\nsamples = 15\nvalue = [[15, 0]\n[6, 9]\n[15, 0]\n[11, 4]\n[13, 2]]", fillcolor="#fbebe0"] ;
24 -> 120 ;
121 [label="dst_host_same_srv_rate <= 0.51\ngini = 0.119\nsamples = 11\nvalue = [[11, 0]\n[2, 9]\n[11, 0]\n[11, 0]\n[9, 2]]", fillcolor="#f1ba93"] ;
120 -> 121 ;
122 [label="gini = 0.0\nsamples = 2\nvalue = [[2, 0]\n[2, 0]\n[2, 0]\n[2, 0]\n[0, 2]]", fillcolor="#e58139"] ;
121 -> 122 ;
123 [label="gini = 0.0\nsamples = 9\nvalue = [[9, 0]\n[0, 9]\n[9, 0]\n[9, 0]\n[9, 0]]", fillcolor="#e58139"] ;
121 -> 123 ;
124 [label="gini = 0.0\nsamples = 4\nvalue = [[4, 0]\n[4, 0]\n[4, 0]\n[0, 4]\n[4, 0]]", fillcolor="#e58139"] ;
120 -> 124 ;
125 [label="srv_count <= 9.5\ngini = 0.188\nsamples = 8\nvalue = [[3, 5]\n[5, 3]\n[8, 0]\n[8, 0]\n[8, 0]]", fillcolor="#f8dbc7"] ;
23 -> 125 ;
126 [label="gini = 0.0\nsamples = 3\nvalue = [[3, 0]\n[0, 3]\n[3, 0]\n[3, 0]\n[3, 0]]", fillcolor="#e58139"] ;
125 -> 126 ;
127 [label="gini = 0.0\nsamples = 5\nvalue = [[0, 5]\n[5, 0]\n[5, 0]\n[5, 0]\n[5, 0]]", fillcolor="#e58139"] ;
125 -> 127 ;
128 [label="srv_diff_host_rate <= 0.5\ngini = 0.128\nsamples = 5\nvalue = [[5, 0]\n[4, 1]\n[1, 4]\n[5, 0]\n[5, 0]]", fillcolor="#f2bf9a"] ;
22 -> 128 ;
129 [label="gini = 0.0\nsamples = 4\nvalue = [[4, 0]\n[4, 0]\n[0, 4]\n[4, 0]\n[4, 0]]", fillcolor="#e58139"] ;
128 -> 129 ;
130 [label="gini = 0.0\nsamples = 1\nvalue = [[1, 0]\n[0, 1]\n[1, 0]\n[1, 0]\n[1, 0]]", fillcolor="#e58139"] ;
128 -> 130 ;
131 [label="gini = 0.0\nsamples = 5\nvalue = [[5, 0]\n[5, 0]\n[5, 0]\n[0, 5]\n[5, 0]]", fillcolor="#e58139"] ;
21 -> 131 ;
132 [label="service_private <= 0.5\ngini = 0.182\nsamples = 201\nvalue = [[193, 8]\n[57, 144]\n[179, 22]\n[174, 27]\n[201, 0]]", fillcolor="#f7d9c3"] ;
20 -> 132 ;
133 [label="is_guest_login <= 0.5\ngini = 0.134\nsamples = 180\nvalue = [[172, 8]\n[36, 144]\n[179, 1]\n[153, 27]\n[180, 0]]", fillcolor="#f2c29f"] ;
132 -> 133 ;
134 [label="srv_serror_rate <= 0.625\ngini = 0.078\nsamples = 161\nvalue = [[153, 8]\n[17, 144]\n[160, 1]\n[153, 8]\n[161, 0]]", fillcolor="#eda774"] ;
133 -> 134 ;
135 [label="su_attempted <= 0.5\ngini = 0.021\nsamples = 147\nvalue = [[145, 2]\n[4, 143]\n[147, 0]\n[145, 2]\n[147, 0]]", fillcolor="#e78b49"] ;
134 -> 135 ;
136 [label="serror_rate <= 0.75\ngini = 0.016\nsamples = 146\nvalue = [[144, 2]\n[3, 143]\n[146, 0]\n[145, 1]\n[146, 0]]", fillcolor="#e78945"] ;
135 -> 136 ;
137 [label="service_ecr_i <= 0.5\ngini = 0.011\nsamples = 145\nvalue = [[144, 1]\n[2, 143]\n[145, 0]\n[144, 1]\n[145, 0]]", fillcolor="#e68641"] ;
136 -> 137 ;
138 [label="service_telnet <= 0.5\ngini = 0.006\nsamples = 143\nvalue = [[143, 0]\n[1, 142]\n[143, 0]\n[142, 1]\n[143, 0]]", fillcolor="#e6843d"] ;
137 -> 138 ;
139 [label="gini = 0.0\nsamples = 138\nvalue = [[138, 0]\n[0, 138]\n[138, 0]\n[138, 0]\n[138, 0]]", fillcolor="#e58139"] ;
138 -> 139 ;
140 [label="logged_in <= 0.5\ngini = 0.128\nsamples = 5\nvalue = [[5, 0]\n[1, 4]\n[5, 0]\n[4, 1]\n[5, 0]]", fillcolor="#f2bf9a"] ;
138 -> 140 ;
141 [label="gini = 0.0\nsamples = 1\nvalue = [[1, 0]\n[1, 0]\n[1, 0]\n[0, 1]\n[1, 0]]", fillcolor="#e58139"] ;
140 -> 141 ;
142 [label="gini = 0.0\nsamples = 4\nvalue = [[4, 0]\n[0, 4]\n[4, 0]\n[4, 0]\n[4, 0]]", fillcolor="#e58139"] ;
140 -> 142 ;
143 [label="dst_host_same_srv_rate <= 0.155\ngini = 0.2\nsamples = 2\nvalue = [[1, 1]\n[1, 1]\n[2, 0]\n[2, 0]\n[2, 0]]", fillcolor="#f9e2d1"] ;
137 -> 143 ;
144 [label="gini = 0.0\nsamples = 1\nvalue = [[1, 0]\n[0, 1]\n[1, 0]\n[1, 0]\n[1, 0]]", fillcolor="#e58139"] ;
143 -> 144 ;
145 [label="gini = 0.0\nsamples = 1\nvalue = [[0, 1]\n[1, 0]\n[1, 0]\n[1, 0]\n[1, 0]]", fillcolor="#e58139"] ;
143 -> 145 ;
146 [label="gini = 0.0\nsamples = 1\nvalue = [[0, 1]\n[1, 0]\n[1, 0]\n[1, 0]\n[1, 0]]", fillcolor="#e58139"] ;
136 -> 146 ;
147 [label="gini = 0.0\nsamples = 1\nvalue = [[1, 0]\n[1, 0]\n[1, 0]\n[0, 1]\n[1, 0]]", fillcolor="#e58139"] ;
135 -> 147 ;
148 [label="service_imap4 <= 0.5\ngini = 0.249\nsamples = 14\nvalue = [[8, 6]\n[13, 1]\n[13, 1]\n[8, 6]\n[14, 0]]", fillcolor="#fef9f6"] ;
134 -> 148 ;
149 [label="dst_host_same_src_port_rate <= 0.415\ngini = 0.162\nsamples = 8\nvalue = [[2, 6]\n[7, 1]\n[7, 1]\n[8, 0]\n[8, 0]]", fillcolor="#f5cfb4"] ;
148 -> 149 ;
150 [label="gini = 0.0\nsamples = 6\nvalue = [[0, 6]\n[6, 0]\n[6, 0]\n[6, 0]\n[6, 0]]", fillcolor="#e58139"] ;
149 -> 150 ;
151 [label="dst_host_srv_serror_rate <= 0.505\ngini = 0.2\nsamples = 2\nvalue = [[2, 0]\n[1, 1]\n[1, 1]\n[2, 0]\n[2, 0]]", fillcolor="#f9e2d1"] ;
149 -> 151 ;
152 [label="gini = 0.0\nsamples = 1\nvalue = [[1, 0]\n[0, 1]\n[1, 0]\n[1, 0]\n[1, 0]]", fillcolor="#e58139"] ;
151 -> 152 ;
153 [label="gini = 0.0\nsamples = 1\nvalue = [[1, 0]\n[1, 0]\n[0, 1]\n[1, 0]\n[1, 0]]", fillcolor="#e58139"] ;
151 -> 153 ;
154 [label="gini = 0.0\nsamples = 6\nvalue = [[6, 0]\n[6, 0]\n[6, 0]\n[0, 6]\n[6, 0]]", fillcolor="#e58139"] ;
148 -> 154 ;
155 [label="gini = 0.0\nsamples = 19\nvalue = [[19, 0]\n[19, 0]\n[19, 0]\n[0, 19]\n[19, 0]]", fillcolor="#e58139"] ;
133 -> 155 ;
156 [label="gini = 0.0\nsamples = 21\nvalue = [[21, 0]\n[21, 0]\n[0, 21]\n[21, 0]\n[21, 0]]", fillcolor="#e58139"] ;
132 -> 156 ;
157 [label="dst_host_srv_rerror_rate <= 0.265\ngini = 0.11\nsamples = 44\nvalue = [[44, 0]\n[38, 6]\n[44, 0]\n[7, 37]\n[43, 1]]", fillcolor="#f0b68c"] ;
9 -> 157 ;
158 [label="dst_bytes <= 186.0\ngini = 0.098\nsamples = 7\nvalue = [[7, 0]\n[1, 6]\n[7, 0]\n[7, 0]\n[6, 1]]", fillcolor="#efb083"] ;
157 -> 158 ;
159 [label="gini = 0.0\nsamples = 1\nvalue = [[1, 0]\n[1, 0]\n[1, 0]\n[1, 0]\n[0, 1]]", fillcolor="#e58139"] ;
158 -> 159 ;
160 [label="gini = 0.0\nsamples = 6\nvalue = [[6, 0]\n[0, 6]\n[6, 0]\n[6, 0]\n[6, 0]]", fillcolor="#e58139"] ;
158 -> 160 ;
161 [label="gini = 0.0\nsamples = 37\nvalue = [[37, 0]\n[37, 0]\n[37, 0]\n[0, 37]\n[37, 0]]", fillcolor="#e58139"] ;
157 -> 161 ;
162 [label="service_ftp_data <= 0.5\ngini = 0.111\nsamples = 4247\nvalue = [[4213, 34]\n[671, 3576]\n[4073, 174]\n[3793, 454]\n[4238, 9]]", fillcolor="#f0b78d"] ;
8 -> 162 ;
163 [label="dst_host_srv_diff_host_rate <= 0.245\ngini = 0.042\nsamples = 3760\nvalue = [[3726, 34]\n[209, 3551]\n[3589, 171]\n[3757, 3]\n[3759, 1]]", fillcolor="#e99559"] ;
162 -> 163 ;
164 [label="count <= 13.5\ngini = 0.018\nsamples = 3539\nvalue = [[3505, 34]\n[82, 3457]\n[3495, 44]\n[3536, 3]\n[3538, 1]]", fillcolor="#e78a47"] ;
163 -> 164 ;
165 [label="service_private <= 0.5\ngini = 0.008\nsamples = 3481\nvalue = [[3469, 12]\n[36, 3445]\n[3461, 20]\n[3478, 3]\n[3480, 1]]", fillcolor="#e6853f"] ;
164 -> 165 ;
166 [label="service_tim_i <= 0.5\ngini = 0.007\nsamples = 3473\nvalue = [[3461, 12]\n[29, 3444]\n[3460, 13]\n[3470, 3]\n[3472, 1]]", fillcolor="#e6843e"] ;
165 -> 166 ;
167 [label="src_bytes <= 1017.0\ngini = 0.006\nsamples = 3468\nvalue = [[3460, 8]\n[25, 3443]\n[3455, 13]\n[3465, 3]\n[3467, 1]]", fillcolor="#e6843d"] ;
166 -> 167 ;
168 [label="srv_count <= 42.5\ngini = 0.004\nsamples = 3438\nvalue = [[3437, 1]\n[18, 3420]\n[3425, 13]\n[3435, 3]\n[3437, 1]]", fillcolor="#e5833c"] ;
167 -> 168 ;
169 [label="num_access_files <= 0.5\ngini = 0.003\nsamples = 3432\nvalue = [[3431, 1]\n[15, 3417]\n[3421, 11]\n[3430, 2]\n[3431, 1]]", fillcolor="#e5833c"] ;
168 -> 169 ;
170 [label="same_srv_rate <= 0.19\ngini = 0.003\nsamples = 3431\nvalue = [[3430, 1]\n[14, 3417]\n[3420, 11]\n[3430, 1]\n[3430, 1]]", fillcolor="#e5833b"] ;
169 -> 170 ;
171 [label="dst_host_srv_count <= 1.5\ngini = 0.2\nsamples = 2\nvalue = [[2, 0]\n[1, 1]\n[1, 1]\n[2, 0]\n[2, 0]]", fillcolor="#f9e2d1"] ;
170 -> 171 ;
172 [label="gini = 0.0\nsamples = 1\nvalue = [[1, 0]\n[0, 1]\n[1, 0]\n[1, 0]\n[1, 0]]", fillcolor="#e58139"] ;
171 -> 172 ;
173 [label="gini = 0.0\nsamples = 1\nvalue = [[1, 0]\n[1, 0]\n[0, 1]\n[1, 0]\n[1, 0]]", fillcolor="#e58139"] ;
171 -> 173 ;
174 [label="service_telnet <= 0.5\ngini = 0.003\nsamples = 3429\nvalue = [[3428, 1]\n[13, 3416]\n[3419, 10]\n[3428, 1]\n[3428, 1]]", fillcolor="#e5823b"] ;
170 -> 174 ;
175 [label="src_bytes <= 23.5\ngini = 0.003\nsamples = 3425\nvalue = [[3424, 1]\n[12, 3413]\n[3415, 10]\n[3424, 1]\n[3425, 0]]", fillcolor="#e5823b"] ;
174 -> 175 ;
176 [label="protocol_type_tcp <= 0.5\ngini = 0.016\nsamples = 484\nvalue = [[484, 0]\n[10, 474]\n[474, 10]\n[484, 0]\n[484, 0]]", fillcolor="#e78945"] ;
175 -> 176 ;
177 [label="dst_host_srv_diff_host_rate <= 0.005\ngini = 0.142\nsamples = 13\nvalue = [[13, 0]\n[10, 3]\n[3, 10]\n[13, 0]\n[13, 0]]", fillcolor="#f3c6a5"] ;
176 -> 177 ;
178 [label="gini = 0.0\nsamples = 10\nvalue = [[10, 0]\n[10, 0]\n[0, 10]\n[10, 0]\n[10, 0]]", fillcolor="#e58139"] ;
177 -> 178 ;
179 [label="gini = 0.0\nsamples = 3\nvalue = [[3, 0]\n[0, 3]\n[3, 0]\n[3, 0]\n[3, 0]]", fillcolor="#e58139"] ;
177 -> 179 ;
180 [label="gini = 0.0\nsamples = 471\nvalue = [[471, 0]\n[0, 471]\n[471, 0]\n[471, 0]\n[471, 0]]", fillcolor="#e58139"] ;
176 -> 180 ;
181 [label="dst_host_serror_rate <= 0.09\ngini = 0.001\nsamples = 2941\nvalue = [[2940, 1]\n[2, 2939]\n[2941, 0]\n[2940, 1]\n[2941, 0]]", fillcolor="#e58139"] ;
175 -> 181 ;
182 [label="src_bytes <= 518.0\ngini = 0.0\nsamples = 2939\nvalue = [[2938, 1]\n[1, 2938]\n[2939, 0]\n[2939, 0]\n[2939, 0]]", fillcolor="#e58139"] ;
181 -> 182 ;
183 [label="gini = 0.0\nsamples = 2922\nvalue = [[2922, 0]\n[0, 2922]\n[2922, 0]\n[2922, 0]\n[2922, 0]]", fillcolor="#e58139"] ;
182 -> 183 ;
184 [label="protocol_type_tcp <= 0.5\ngini = 0.044\nsamples = 17\nvalue = [[16, 1]\n[1, 16]\n[17, 0]\n[17, 0]\n[17, 0]]", fillcolor="#e9965b"] ;
182 -> 184 ;
185 [label="gini = 0.0\nsamples = 1\nvalue = [[0, 1]\n[1, 0]\n[1, 0]\n[1, 0]\n[1, 0]]", fillcolor="#e58139"] ;
184 -> 185 ;
186 [label="gini = 0.0\nsamples = 16\nvalue = [[16, 0]\n[0, 16]\n[16, 0]\n[16, 0]\n[16, 0]]", fillcolor="#e58139"] ;
184 -> 186 ;
187 [label="flag_S0 <= 0.5\ngini = 0.2\nsamples = 2\nvalue = [[2, 0]\n[1, 1]\n[2, 0]\n[1, 1]\n[2, 0]]", fillcolor="#f9e2d1"] ;
181 -> 187 ;
188 [label="gini = 0.0\nsamples = 1\nvalue = [[1, 0]\n[1, 0]\n[1, 0]\n[0, 1]\n[1, 0]]", fillcolor="#e58139"] ;
187 -> 188 ;
189 [label="gini = 0.0\nsamples = 1\nvalue = [[1, 0]\n[0, 1]\n[1, 0]\n[1, 0]\n[1, 0]]", fillcolor="#e58139"] ;
187 -> 189 ;
190 [label="src_bytes <= 208.5\ngini = 0.15\nsamples = 4\nvalue = [[4, 0]\n[1, 3]\n[4, 0]\n[4, 0]\n[3, 1]]", fillcolor="#f4c9ab"] ;
174 -> 190 ;
191 [label="gini = 0.0\nsamples = 2\nvalue = [[2, 0]\n[0, 2]\n[2, 0]\n[2, 0]\n[2, 0]]", fillcolor="#e58139"] ;
190 -> 191 ;
192 [label="logged_in <= 0.5\ngini = 0.2\nsamples = 2\nvalue = [[2, 0]\n[1, 1]\n[2, 0]\n[2, 0]\n[1, 1]]", fillcolor="#f9e2d1"] ;
190 -> 192 ;
193 [label="gini = 0.0\nsamples = 1\nvalue = [[1, 0]\n[1, 0]\n[1, 0]\n[1, 0]\n[0, 1]]", fillcolor="#e58139"] ;
192 -> 193 ;
194 [label="gini = 0.0\nsamples = 1\nvalue = [[1, 0]\n[0, 1]\n[1, 0]\n[1, 0]\n[1, 0]]", fillcolor="#e58139"] ;
192 -> 194 ;
195 [label="gini = 0.0\nsamples = 1\nvalue = [[1, 0]\n[1, 0]\n[1, 0]\n[0, 1]\n[1, 0]]", fillcolor="#e58139"] ;
169 -> 195 ;
196 [label="dst_host_srv_count <= 105.5\ngini = 0.244\nsamples = 6\nvalue = [[6, 0]\n[3, 3]\n[4, 2]\n[5, 1]\n[6, 0]]", fillcolor="#fdf7f2"] ;
168 -> 196 ;
197 [label="srv_diff_host_rate <= 0.64\ngini = 0.178\nsamples = 3\nvalue = [[3, 0]\n[3, 0]\n[1, 2]\n[2, 1]\n[3, 0]]", fillcolor="#f7d7c0"] ;
196 -> 197 ;
198 [label="gini = 0.0\nsamples = 1\nvalue = [[1, 0]\n[1, 0]\n[1, 0]\n[0, 1]\n[1, 0]]", fillcolor="#e58139"] ;
197 -> 198 ;
199 [label="gini = 0.0\nsamples = 2\nvalue = [[2, 0]\n[2, 0]\n[0, 2]\n[2, 0]\n[2, 0]]", fillcolor="#e58139"] ;
197 -> 199 ;
200 [label="gini = 0.0\nsamples = 3\nvalue = [[3, 0]\n[0, 3]\n[3, 0]\n[3, 0]\n[3, 0]]", fillcolor="#e58139"] ;
196 -> 200 ;
201 [label="service_smtp <= 0.5\ngini = 0.143\nsamples = 30\nvalue = [[23, 7]\n[7, 23]\n[30, 0]\n[30, 0]\n[30, 0]]", fillcolor="#f3c6a6"] ;
167 -> 201 ;
202 [label="gini = 0.0\nsamples = 7\nvalue = [[0, 7]\n[7, 0]\n[7, 0]\n[7, 0]\n[7, 0]]", fillcolor="#e58139"] ;
201 -> 202 ;
203 [label="gini = 0.0\nsamples = 23\nvalue = [[23, 0]\n[0, 23]\n[23, 0]\n[23, 0]\n[23, 0]]", fillcolor="#e58139"] ;
201 -> 203 ;
204 [label="srv_count <= 1.5\ngini = 0.128\nsamples = 5\nvalue = [[1, 4]\n[4, 1]\n[5, 0]\n[5, 0]\n[5, 0]]", fillcolor="#f2bf9a"] ;
166 -> 204 ;
205 [label="dst_host_count <= 1.5\ngini = 0.178\nsamples = 3\nvalue = [[1, 2]\n[2, 1]\n[3, 0]\n[3, 0]\n[3, 0]]", fillcolor="#f7d7c0"] ;
204 -> 205 ;
206 [label="gini = 0.0\nsamples = 1\nvalue = [[0, 1]\n[1, 0]\n[1, 0]\n[1, 0]\n[1, 0]]", fillcolor="#e58139"] ;
205 -> 206 ;
207 [label="gini = 0.2\nsamples = 2\nvalue = [[1, 1]\n[1, 1]\n[2, 0]\n[2, 0]\n[2, 0]]", fillcolor="#f9e2d1"] ;
205 -> 207 ;
208 [label="gini = 0.0\nsamples = 2\nvalue = [[0, 2]\n[2, 0]\n[2, 0]\n[2, 0]\n[2, 0]]", fillcolor="#e58139"] ;
204 -> 208 ;
209 [label="count <= 1.5\ngini = 0.088\nsamples = 8\nvalue = [[8, 0]\n[7, 1]\n[1, 7]\n[8, 0]\n[8, 0]]", fillcolor="#eeab7b"] ;
165 -> 209 ;
210 [label="gini = 0.0\nsamples = 1\nvalue = [[1, 0]\n[0, 1]\n[1, 0]\n[1, 0]\n[1, 0]]", fillcolor="#e58139"] ;
209 -> 210 ;
211 [label="gini = 0.0\nsamples = 7\nvalue = [[7, 0]\n[7, 0]\n[0, 7]\n[7, 0]\n[7, 0]]", fillcolor="#e58139"] ;
209 -> 211 ;
212 [label="src_bytes <= 21.5\ngini = 0.257\nsamples = 58\nvalue = [[36, 22]\n[46, 12]\n[34, 24]\n[58, 0]\n[58, 0]]", fillcolor="#fffdfc"] ;
164 -> 212 ;
213 [label="gini = 0.0\nsamples = 24\nvalue = [[24, 0]\n[24, 0]\n[0, 24]\n[24, 0]\n[24, 0]]", fillcolor="#e58139"] ;
212 -> 213 ;
214 [label="src_bytes <= 518.0\ngini = 0.183\nsamples = 34\nvalue = [[12, 22]\n[22, 12]\n[34, 0]\n[34, 0]\n[34, 0]]", fillcolor="#f7d9c4"] ;
212 -> 214 ;
215 [label="gini = 0.0\nsamples = 12\nvalue = [[12, 0]\n[0, 12]\n[12, 0]\n[12, 0]\n[12, 0]]", fillcolor="#e58139"] ;
214 -> 215 ;
216 [label="gini = 0.0\nsamples = 22\nvalue = [[0, 22]\n[22, 0]\n[22, 0]\n[22, 0]\n[22, 0]]", fillcolor="#e58139"] ;
214 -> 216 ;
217 [label="service_eco_i <= 0.5\ngini = 0.196\nsamples = 221\nvalue = [[221, 0]\n[127, 94]\n[94, 127]\n[221, 0]\n[221, 0]]", fillcolor="#f8dfcd"] ;
163 -> 217 ;
218 [label="gini = 0.0\nsamples = 87\nvalue = [[87, 0]\n[0, 87]\n[87, 0]\n[87, 0]\n[87, 0]]", fillcolor="#e58139"] ;
217 -> 218 ;
219 [label="src_bytes <= 24.0\ngini = 0.04\nsamples = 134\nvalue = [[134, 0]\n[127, 7]\n[7, 127]\n[134, 0]\n[134, 0]]", fillcolor="#e99457"] ;
217 -> 219 ;
220 [label="gini = 0.0\nsamples = 127\nvalue = [[127, 0]\n[127, 0]\n[0, 127]\n[127, 0]\n[127, 0]]", fillcolor="#e58139"] ;
219 -> 220 ;
221 [label="gini = 0.0\nsamples = 7\nvalue = [[7, 0]\n[0, 7]\n[7, 0]\n[7, 0]\n[7, 0]]", fillcolor="#e58139"] ;
219 -> 221 ;
222 [label="count <= 2.5\ngini = 0.056\nsamples = 487\nvalue = [[487, 0]\n[462, 25]\n[484, 3]\n[36, 451]\n[479, 8]]", fillcolor="#eb9c63"] ;
162 -> 222 ;
223 [label="dst_host_srv_count <= 67.0\ngini = 0.03\nsamples = 469\nvalue = [[469, 0]\n[457, 12]\n[466, 3]\n[18, 451]\n[466, 3]]", fillcolor="#e88f50"] ;
222 -> 223 ;
224 [label="num_root <= 3.0\ngini = 0.014\nsamples = 457\nvalue = [[457, 0]\n[451, 6]\n[457, 0]\n[8, 449]\n[455, 2]]", fillcolor="#e68843"] ;
223 -> 224 ;
225 [label="dst_bytes <= 3269.0\ngini = 0.012\nsamples = 456\nvalue = [[456, 0]\n[451, 5]\n[456, 0]\n[7, 449]\n[454, 2]]", fillcolor="#e68742"] ;
224 -> 225 ;
226 [label="logged_in <= 0.5\ngini = 0.007\nsamples = 441\nvalue = [[441, 0]\n[437, 4]\n[441, 0]\n[4, 437]\n[441, 0]]", fillcolor="#e6843e"] ;
225 -> 226 ;
227 [label="dst_bytes <= 2.5\ngini = 0.178\nsamples = 3\nvalue = [[3, 0]\n[2, 1]\n[3, 0]\n[1, 2]\n[3, 0]]", fillcolor="#f7d7c0"] ;
226 -> 227 ;
228 [label="gini = 0.0\nsamples = 1\nvalue = [[1, 0]\n[0, 1]\n[1, 0]\n[1, 0]\n[1, 0]]", fillcolor="#e58139"] ;
227 -> 228 ;
229 [label="gini = 0.0\nsamples = 2\nvalue = [[2, 0]\n[2, 0]\n[2, 0]\n[0, 2]\n[2, 0]]", fillcolor="#e58139"] ;
227 -> 229 ;
230 [label="srv_count <= 2.5\ngini = 0.005\nsamples = 438\nvalue = [[438, 0]\n[435, 3]\n[438, 0]\n[3, 435]\n[438, 0]]", fillcolor="#e6843d"] ;
226 -> 230 ;
231 [label="src_bytes <= 219.0\ngini = 0.004\nsamples = 432\nvalue = [[432, 0]\n[430, 2]\n[432, 0]\n[2, 430]\n[432, 0]]", fillcolor="#e5833c"] ;
230 -> 231 ;
232 [label="src_bytes <= 111.0\ngini = 0.088\nsamples = 8\nvalue = [[8, 0]\n[7, 1]\n[8, 0]\n[1, 7]\n[8, 0]]", fillcolor="#eeab7b"] ;
231 -> 232 ;
233 [label="gini = 0.0\nsamples = 7\nvalue = [[7, 0]\n[7, 0]\n[7, 0]\n[0, 7]\n[7, 0]]", fillcolor="#e58139"] ;
232 -> 233 ;
234 [label="gini = 0.0\nsamples = 1\nvalue = [[1, 0]\n[0, 1]\n[1, 0]\n[1, 0]\n[1, 0]]", fillcolor="#e58139"] ;
232 -> 234 ;
235 [label="src_bytes <= 3015.0\ngini = 0.002\nsamples = 424\nvalue = [[424, 0]\n[423, 1]\n[424, 0]\n[1, 423]\n[424, 0]]", fillcolor="#e5823a"] ;
231 -> 235 ;
236 [label="gini = 0.0\nsamples = 368\nvalue = [[368, 0]\n[368, 0]\n[368, 0]\n[0, 368]\n[368, 0]]", fillcolor="#e58139"] ;
235 -> 236 ;
237 [label="src_bytes <= 6121.5\ngini = 0.014\nsamples = 56\nvalue = [[56, 0]\n[55, 1]\n[56, 0]\n[1, 55]\n[56, 0]]", fillcolor="#e68844"] ;
235 -> 237 ;
238 [label="gini = 0.0\nsamples = 1\nvalue = [[1, 0]\n[0, 1]\n[1, 0]\n[1, 0]\n[1, 0]]", fillcolor="#e58139"] ;
237 -> 238 ;
239 [label="gini = 0.0\nsamples = 55\nvalue = [[55, 0]\n[55, 0]\n[55, 0]\n[0, 55]\n[55, 0]]", fillcolor="#e58139"] ;
237 -> 239 ;
240 [label="dst_host_srv_count <= 53.5\ngini = 0.111\nsamples = 6\nvalue = [[6, 0]\n[5, 1]\n[6, 0]\n[1, 5]\n[6, 0]]", fillcolor="#f0b78d"] ;
230 -> 240 ;
241 [label="gini = 0.0\nsamples = 5\nvalue = [[5, 0]\n[5, 0]\n[5, 0]\n[0, 5]\n[5, 0]]", fillcolor="#e58139"] ;
240 -> 241 ;
242 [label="gini = 0.0\nsamples = 1\nvalue = [[1, 0]\n[0, 1]\n[1, 0]\n[1, 0]\n[1, 0]]", fillcolor="#e58139"] ;
240 -> 242 ;
243 [label="logged_in <= 0.5\ngini = 0.135\nsamples = 15\nvalue = [[15, 0]\n[14, 1]\n[15, 0]\n[3, 12]\n[13, 2]]", fillcolor="#f2c29f"] ;
225 -> 243 ;
244 [label="gini = 0.0\nsamples = 12\nvalue = [[12, 0]\n[12, 0]\n[12, 0]\n[0, 12]\n[12, 0]]", fillcolor="#e58139"] ;
243 -> 244 ;
245 [label="dst_host_srv_count <= 20.5\ngini = 0.178\nsamples = 3\nvalue = [[3, 0]\n[2, 1]\n[3, 0]\n[3, 0]\n[1, 2]]", fillcolor="#f7d7c0"] ;
243 -> 245 ;
246 [label="gini = 0.0\nsamples = 2\nvalue = [[2, 0]\n[2, 0]\n[2, 0]\n[2, 0]\n[0, 2]]", fillcolor="#e58139"] ;
245 -> 246 ;
247 [label="gini = 0.0\nsamples = 1\nvalue = [[1, 0]\n[0, 1]\n[1, 0]\n[1, 0]\n[1, 0]]", fillcolor="#e58139"] ;
245 -> 247 ;
248 [label="gini = 0.0\nsamples = 1\nvalue = [[1, 0]\n[0, 1]\n[1, 0]\n[1, 0]\n[1, 0]]", fillcolor="#e58139"] ;
224 -> 248 ;
249 [label="dst_host_srv_rerror_rate <= 0.01\ngini = 0.261\nsamples = 12\nvalue = [[12, 0]\n[6, 6]\n[9, 3]\n[10, 2]\n[11, 1]]", fillcolor="#ffffff"] ;
223 -> 249 ;
250 [label="src_bytes <= 47.5\ngini = 0.198\nsamples = 9\nvalue = [[9, 0]\n[3, 6]\n[9, 0]\n[7, 2]\n[8, 1]]", fillcolor="#f9e0cf"] ;
249 -> 250 ;
251 [label="dst_bytes <= 2850.5\ngini = 0.2\nsamples = 2\nvalue = [[2, 0]\n[2, 0]\n[2, 0]\n[1, 1]\n[1, 1]]", fillcolor="#f9e2d1"] ;
250 -> 251 ;
252 [label="gini = 0.0\nsamples = 1\nvalue = [[1, 0]\n[1, 0]\n[1, 0]\n[0, 1]\n[1, 0]]", fillcolor="#e58139"] ;
251 -> 252 ;
253 [label="gini = 0.0\nsamples = 1\nvalue = [[1, 0]\n[1, 0]\n[1, 0]\n[1, 0]\n[0, 1]]", fillcolor="#e58139"] ;
251 -> 253 ;
254 [label="srv_diff_host_rate <= 0.5\ngini = 0.098\nsamples = 7\nvalue = [[7, 0]\n[1, 6]\n[7, 0]\n[6, 1]\n[7, 0]]", fillcolor="#efb083"] ;
250 -> 254 ;
255 [label="gini = 0.0\nsamples = 6\nvalue = [[6, 0]\n[0, 6]\n[6, 0]\n[6, 0]\n[6, 0]]", fillcolor="#e58139"] ;
254 -> 255 ;
256 [label="gini = 0.0\nsamples = 1\nvalue = [[1, 0]\n[1, 0]\n[1, 0]\n[0, 1]\n[1, 0]]", fillcolor="#e58139"] ;
254 -> 256 ;
257 [label="gini = 0.0\nsamples = 3\nvalue = [[3, 0]\n[3, 0]\n[0, 3]\n[3, 0]\n[3, 0]]", fillcolor="#e58139"] ;
249 -> 257 ;
258 [label="src_bytes <= 29.5\ngini = 0.16\nsamples = 18\nvalue = [[18, 0]\n[5, 13]\n[18, 0]\n[18, 0]\n[13, 5]]", fillcolor="#f5ceb3"] ;
222 -> 258 ;
259 [label="gini = 0.0\nsamples = 5\nvalue = [[5, 0]\n[5, 0]\n[5, 0]\n[5, 0]\n[0, 5]]", fillcolor="#e58139"] ;
258 -> 259 ;
260 [label="gini = 0.0\nsamples = 13\nvalue = [[13, 0]\n[0, 13]\n[13, 0]\n[13, 0]\n[13, 0]]", fillcolor="#e58139"] ;
258 -> 260 ;
261 [label="src_bytes <= 5.5\ngini = 0.118\nsamples = 146\nvalue = [[146, 0]\n[121, 25]\n[26, 120]\n[145, 1]\n[146, 0]]", fillcolor="#f1ba93"] ;
7 -> 261 ;
262 [label="dst_host_same_srv_rate <= 0.375\ngini = 0.007\nsamples = 121\nvalue = [[121, 0]\n[120, 1]\n[1, 120]\n[121, 0]\n[121, 0]]", fillcolor="#e6843e"] ;
261 -> 262 ;
263 [label="gini = 0.0\nsamples = 120\nvalue = [[120, 0]\n[120, 0]\n[0, 120]\n[120, 0]\n[120, 0]]", fillcolor="#e58139"] ;
262 -> 263 ;
264 [label="gini = 0.0\nsamples = 1\nvalue = [[1, 0]\n[0, 1]\n[1, 0]\n[1, 0]\n[1, 0]]", fillcolor="#e58139"] ;
262 -> 264 ;
265 [label="urgent <= 0.5\ngini = 0.031\nsamples = 25\nvalue = [[25, 0]\n[1, 24]\n[25, 0]\n[24, 1]\n[25, 0]]", fillcolor="#e89050"] ;
261 -> 265 ;
266 [label="gini = 0.0\nsamples = 24\nvalue = [[24, 0]\n[0, 24]\n[24, 0]\n[24, 0]\n[24, 0]]", fillcolor="#e58139"] ;
265 -> 266 ;
267 [label="gini = 0.0\nsamples = 1\nvalue = [[1, 0]\n[1, 0]\n[1, 0]\n[0, 1]\n[1, 0]]", fillcolor="#e58139"] ;
265 -> 267 ;
268 [label="dst_bytes <= 3299.0\ngini = 0.072\nsamples = 211\nvalue = [[211, 0]\n[190, 21]\n[211, 0]\n[21, 190]\n[211, 0]]", fillcolor="#eca46f"] ;
6 -> 268 ;
269 [label="gini = 0.0\nsamples = 190\nvalue = [[190, 0]\n[190, 0]\n[190, 0]\n[0, 190]\n[190, 0]]", fillcolor="#e58139"] ;
268 -> 269 ;
270 [label="gini = 0.0\nsamples = 21\nvalue = [[21, 0]\n[0, 21]\n[21, 0]\n[21, 0]\n[21, 0]]", fillcolor="#e58139"] ;
268 -> 270 ;
271 [label="gini = 0.0\nsamples = 415\nvalue = [[0, 415]\n[415, 0]\n[415, 0]\n[415, 0]\n[415, 0]]", fillcolor="#e58139"] ;
5 -> 271 ;
272 [label="src_bytes <= 20.0\ngini = 0.086\nsamples = 556\nvalue = [[509, 47]\n[540, 16]\n[66, 490]\n[553, 3]\n[556, 0]]", fillcolor="#eeab7a"] ;
4 -> 272 ;
273 [label="gini = 0.0\nsamples = 490\nvalue = [[490, 0]\n[490, 0]\n[0, 490]\n[490, 0]\n[490, 0]]", fillcolor="#e58139"] ;
272 -> 273 ;
274 [label="service_http <= 0.5\ngini = 0.173\nsamples = 66\nvalue = [[19, 47]\n[50, 16]\n[66, 0]\n[63, 3]\n[66, 0]]", fillcolor="#f6d4bc"] ;
272 -> 274 ;
275 [label="dst_host_diff_srv_rate <= 0.01\ngini = 0.106\nsamples = 19\nvalue = [[19, 0]\n[3, 16]\n[19, 0]\n[16, 3]\n[19, 0]]", fillcolor="#f0b48a"] ;
274 -> 275 ;
276 [label="gini = 0.0\nsamples = 3\nvalue = [[3, 0]\n[3, 0]\n[3, 0]\n[0, 3]\n[3, 0]]", fillcolor="#e58139"] ;
275 -> 276 ;
277 [label="gini = 0.0\nsamples = 16\nvalue = [[16, 0]\n[0, 16]\n[16, 0]\n[16, 0]\n[16, 0]]", fillcolor="#e58139"] ;
275 -> 277 ;
278 [label="gini = 0.0\nsamples = 47\nvalue = [[0, 47]\n[47, 0]\n[47, 0]\n[47, 0]\n[47, 0]]", fillcolor="#e58139"] ;
274 -> 278 ;
279 [label="src_bytes <= 21.0\ngini = 0.117\nsamples = 939\nvalue = [[863, 76]\n[870, 69]\n[156, 783]\n[930, 9]\n[937, 2]]", fillcolor="#f1b992"] ;
3 -> 279 ;
280 [label="dst_bytes <= 25.0\ngini = 0.036\nsamples = 822\nvalue = [[822, 0]\n[785, 37]\n[39, 783]\n[822, 0]\n[820, 2]]", fillcolor="#e99254"] ;
279 -> 280 ;
281 [label="service_http <= 0.5\ngini = 0.016\nsamples = 798\nvalue = [[798, 0]\n[782, 16]\n[16, 782]\n[798, 0]\n[798, 0]]", fillcolor="#e78945"] ;
280 -> 281 ;
282 [label="gini = 0.0\nsamples = 780\nvalue = [[780, 0]\n[780, 0]\n[0, 780]\n[780, 0]\n[780, 0]]", fillcolor="#e58139"] ;
281 -> 282 ;
283 [label="dst_host_same_src_port_rate <= 0.175\ngini = 0.079\nsamples = 18\nvalue = [[18, 0]\n[2, 16]\n[16, 2]\n[18, 0]\n[18, 0]]", fillcolor="#eda775"] ;
281 -> 283 ;
284 [label="gini = 0.0\nsamples = 2\nvalue = [[2, 0]\n[2, 0]\n[0, 2]\n[2, 0]\n[2, 0]]", fillcolor="#e58139"] ;
283 -> 284 ;
285 [label="gini = 0.0\nsamples = 16\nvalue = [[16, 0]\n[0, 16]\n[16, 0]\n[16, 0]\n[16, 0]]", fillcolor="#e58139"] ;
283 -> 285 ;
286 [label="src_bytes <= 3.5\ngini = 0.09\nsamples = 24\nvalue = [[24, 0]\n[3, 21]\n[23, 1]\n[24, 0]\n[22, 2]]", fillcolor="#eead7d"] ;
280 -> 286 ;
287 [label="same_srv_rate <= 0.835\ngini = 0.178\nsamples = 3\nvalue = [[3, 0]\n[3, 0]\n[2, 1]\n[3, 0]\n[1, 2]]", fillcolor="#f7d7c0"] ;
286 -> 287 ;
288 [label="gini = 0.0\nsamples = 2\nvalue = [[2, 0]\n[2, 0]\n[2, 0]\n[2, 0]\n[0, 2]]", fillcolor="#e58139"] ;
287 -> 288 ;
289 [label="gini = 0.0\nsamples = 1\nvalue = [[1, 0]\n[1, 0]\n[0, 1]\n[1, 0]\n[1, 0]]", fillcolor="#e58139"] ;
287 -> 289 ;
290 [label="gini = 0.0\nsamples = 21\nvalue = [[21, 0]\n[0, 21]\n[21, 0]\n[21, 0]\n[21, 0]]", fillcolor="#e58139"] ;
286 -> 290 ;
291 [label="service_ecr_i <= 0.5\ngini = 0.199\nsamples = 117\nvalue = [[41, 76]\n[85, 32]\n[117, 0]\n[108, 9]\n[117, 0]]", fillcolor="#f9e1d0"] ;
279 -> 291 ;
292 [label="service_ftp_data <= 0.5\ngini = 0.137\nsamples = 41\nvalue = [[41, 0]\n[9, 32]\n[41, 0]\n[32, 9]\n[41, 0]]", fillcolor="#f3c3a1"] ;
291 -> 292 ;
293 [label="gini = 0.0\nsamples = 32\nvalue = [[32, 0]\n[0, 32]\n[32, 0]\n[32, 0]\n[32, 0]]", fillcolor="#e58139"] ;
292 -> 293 ;
294 [label="gini = 0.0\nsamples = 9\nvalue = [[9, 0]\n[9, 0]\n[9, 0]\n[0, 9]\n[9, 0]]", fillcolor="#e58139"] ;
292 -> 294 ;
295 [label="gini = 0.0\nsamples = 76\nvalue = [[0, 76]\n[76, 0]\n[76, 0]\n[76, 0]\n[76, 0]]", fillcolor="#e58139"] ;
291 -> 295 ;
296 [label="flag_S0 <= 0.5\ngini = 0.047\nsamples = 1370\nvalue = [[84, 1286]\n[1357, 13]\n[1302, 68]\n[1367, 3]\n[1370, 0]]", fillcolor="#ea975c"] ;
2 -> 296 ;
297 [label="dst_host_diff_srv_rate <= 0.71\ngini = 0.111\nsamples = 81\nvalue = [[81, 0]\n[71, 10]\n[13, 68]\n[78, 3]\n[81, 0]]", fillcolor="#f0b78e"] ;
296 -> 297 ;
298 [label="dst_bytes <= 283.5\ngini = 0.142\nsamples = 13\nvalue = [[13, 0]\n[3, 10]\n[13, 0]\n[10, 3]\n[13, 0]]", fillcolor="#f3c6a5"] ;
297 -> 298 ;
299 [label="dst_host_diff_srv_rate <= 0.005\ngini = 0.192\nsamples = 5\nvalue = [[5, 0]\n[3, 2]\n[5, 0]\n[2, 3]\n[5, 0]]", fillcolor="#f8decb"] ;
298 -> 299 ;
300 [label="gini = 0.0\nsamples = 3\nvalue = [[3, 0]\n[3, 0]\n[3, 0]\n[0, 3]\n[3, 0]]", fillcolor="#e58139"] ;
299 -> 300 ;
301 [label="gini = 0.0\nsamples = 2\nvalue = [[2, 0]\n[0, 2]\n[2, 0]\n[2, 0]\n[2, 0]]", fillcolor="#e58139"] ;
299 -> 301 ;
302 [label="gini = 0.0\nsamples = 8\nvalue = [[8, 0]\n[0, 8]\n[8, 0]\n[8, 0]\n[8, 0]]", fillcolor="#e58139"] ;
298 -> 302 ;
303 [label="gini = 0.0\nsamples = 68\nvalue = [[68, 0]\n[68, 0]\n[0, 68]\n[68, 0]\n[68, 0]]", fillcolor="#e58139"] ;
297 -> 303 ;
304 [label="dst_host_srv_serror_rate <= 0.095\ngini = 0.002\nsamples = 1289\nvalue = [[3, 1286]\n[1286, 3]\n[1289, 0]\n[1289, 0]\n[1289, 0]]", fillcolor="#e5823a"] ;
296 -> 304 ;
305 [label="dst_host_same_srv_rate <= 0.665\ngini = 0.15\nsamples = 4\nvalue = [[3, 1]\n[1, 3]\n[4, 0]\n[4, 0]\n[4, 0]]", fillcolor="#f4c9ab"] ;
304 -> 305 ;
306 [label="gini = 0.0\nsamples = 1\nvalue = [[0, 1]\n[1, 0]\n[1, 0]\n[1, 0]\n[1, 0]]", fillcolor="#e58139"] ;
305 -> 306 ;
307 [label="gini = 0.0\nsamples = 3\nvalue = [[3, 0]\n[0, 3]\n[3, 0]\n[3, 0]\n[3, 0]]", fillcolor="#e58139"] ;
305 -> 307 ;
308 [label="gini = 0.0\nsamples = 1285\nvalue = [[0, 1285]\n[1285, 0]\n[1285, 0]\n[1285, 0]\n[1285, 0]]", fillcolor="#e58139"] ;
304 -> 308 ;
309 [label="src_bytes <= 10206.0\ngini = 0.03\nsamples = 1551\nvalue = [[60, 1491]\n[1507, 44]\n[1551, 0]\n[1548, 3]\n[1538, 13]]", fillcolor="#e88f50"] ;
1 -> 309 ;
310 [label="dst_host_same_src_port_rate <= 0.085\ngini = 0.165\nsamples = 60\nvalue = [[60, 0]\n[16, 44]\n[60, 0]\n[57, 3]\n[47, 13]]", fillcolor="#f5d1b6"] ;
309 -> 310 ;
311 [label="service_imap4 <= 0.5\ngini = 0.053\nsamples = 43\nvalue = [[43, 0]\n[3, 40]\n[43, 0]\n[42, 1]\n[41, 2]]", fillcolor="#ea9a61"] ;
310 -> 311 ;
312 [label="urgent <= 0.5\ngini = 0.036\nsamples = 42\nvalue = [[42, 0]\n[2, 40]\n[42, 0]\n[42, 0]\n[40, 2]]", fillcolor="#e99355"] ;
311 -> 312 ;
313 [label="num_root <= 4.5\ngini = 0.019\nsamples = 40\nvalue = [[40, 0]\n[1, 39]\n[40, 0]\n[40, 0]\n[39, 1]]", fillcolor="#e78a48"] ;
312 -> 313 ;
314 [label="gini = 0.0\nsamples = 33\nvalue = [[33, 0]\n[0, 33]\n[33, 0]\n[33, 0]\n[33, 0]]", fillcolor="#e58139"] ;
313 -> 314 ;
315 [label="num_compromised <= 12.0\ngini = 0.098\nsamples = 7\nvalue = [[7, 0]\n[1, 6]\n[7, 0]\n[7, 0]\n[6, 1]]", fillcolor="#efb083"] ;
313 -> 315 ;
316 [label="gini = 0.0\nsamples = 1\nvalue = [[1, 0]\n[1, 0]\n[1, 0]\n[1, 0]\n[0, 1]]", fillcolor="#e58139"] ;
315 -> 316 ;
317 [label="gini = 0.0\nsamples = 6\nvalue = [[6, 0]\n[0, 6]\n[6, 0]\n[6, 0]\n[6, 0]]", fillcolor="#e58139"] ;
315 -> 317 ;
318 [label="num_compromised <= 13.0\ngini = 0.2\nsamples = 2\nvalue = [[2, 0]\n[1, 1]\n[2, 0]\n[2, 0]\n[1, 1]]", fillcolor="#f9e2d1"] ;
312 -> 318 ;
319 [label="gini = 0.0\nsamples = 1\nvalue = [[1, 0]\n[1, 0]\n[1, 0]\n[1, 0]\n[0, 1]]", fillcolor="#e58139"] ;
318 -> 319 ;
320 [label="gini = 0.0\nsamples = 1\nvalue = [[1, 0]\n[0, 1]\n[1, 0]\n[1, 0]\n[1, 0]]", fillcolor="#e58139"] ;
318 -> 320 ;
321 [label="gini = 0.0\nsamples = 1\nvalue = [[1, 0]\n[1, 0]\n[1, 0]\n[0, 1]\n[1, 0]]", fillcolor="#e58139"] ;
311 -> 321 ;
322 [label="dst_bytes <= 6589.0\ngini = 0.205\nsamples = 17\nvalue = [[17, 0]\n[13, 4]\n[17, 0]\n[15, 2]\n[6, 11]]", fillcolor="#f9e4d4"] ;
310 -> 322 ;
323 [label="service_http <= 0.5\ngini = 0.061\nsamples = 12\nvalue = [[12, 0]\n[11, 1]\n[12, 0]\n[12, 0]\n[1, 11]]", fillcolor="#eb9e67"] ;
322 -> 323 ;
324 [label="gini = 0.0\nsamples = 11\nvalue = [[11, 0]\n[11, 0]\n[11, 0]\n[11, 0]\n[0, 11]]", fillcolor="#e58139"] ;
323 -> 324 ;
325 [label="gini = 0.0\nsamples = 1\nvalue = [[1, 0]\n[0, 1]\n[1, 0]\n[1, 0]\n[1, 0]]", fillcolor="#e58139"] ;
323 -> 325 ;
326 [label="dst_host_srv_count <= 2.0\ngini = 0.192\nsamples = 5\nvalue = [[5, 0]\n[2, 3]\n[5, 0]\n[3, 2]\n[5, 0]]", fillcolor="#f8decb"] ;
322 -> 326 ;
327 [label="gini = 0.0\nsamples = 2\nvalue = [[2, 0]\n[2, 0]\n[2, 0]\n[0, 2]\n[2, 0]]", fillcolor="#e58139"] ;
326 -> 327 ;
328 [label="gini = 0.0\nsamples = 3\nvalue = [[3, 0]\n[0, 3]\n[3, 0]\n[3, 0]\n[3, 0]]", fillcolor="#e58139"] ;
326 -> 328 ;
329 [label="gini = 0.0\nsamples = 1491\nvalue = [[0, 1491]\n[1491, 0]\n[1491, 0]\n[1491, 0]\n[1491, 0]]", fillcolor="#e58139"] ;
309 -> 329 ;
330 [label="diff_srv_rate <= 0.24\ngini = 0.006\nsamples = 272714\nvalue = [[2034, 270680]\n[271753, 961]\n[271643, 1071]\n[272714, 0]\n[272712, 2]]", fillcolor="#e6843d"] ;
0 -> 330 [labeldistance=2.5, labelangle=-45, headlabel="False"] ;
331 [label="dst_bytes <= 2.0\ngini = 0.003\nsamples = 271663\nvalue = [[983, 270680]\n[270702, 961]\n[271643, 20]\n[271663, 0]\n[271661, 2]]", fillcolor="#e5823b"] ;
330 -> 331 ;
332 [label="logged_in <= 0.5\ngini = 0.0\nsamples = 270706\nvalue = [[27, 270679]\n[270699, 7]\n[270686, 20]\n[270706, 0]\n[270706, 0]]", fillcolor="#e58139"] ;
331 -> 332 ;
333 [label="protocol_type_udp <= 0.5\ngini = 0.0\nsamples = 270703\nvalue = [[24, 270679]\n[270699, 4]\n[270683, 20]\n[270703, 0]\n[270703, 0]]", fillcolor="#e58139"] ;
332 -> 333 ;
334 [label="gini = 0.0\nsamples = 270292\nvalue = [[0, 270292]\n[270292, 0]\n[270292, 0]\n[270292, 0]\n[270292, 0]]", fillcolor="#e58139"] ;
333 -> 334 ;
335 [label="wrong_fragment <= 0.5\ngini = 0.044\nsamples = 411\nvalue = [[24, 387]\n[407, 4]\n[391, 20]\n[411, 0]\n[411, 0]]", fillcolor="#e9965b"] ;
333 -> 335 ;
336 [label="same_srv_rate <= 0.96\ngini = 0.111\nsamples = 24\nvalue = [[24, 0]\n[20, 4]\n[4, 20]\n[24, 0]\n[24, 0]]", fillcolor="#f0b78d"] ;
335 -> 336 ;
337 [label="gini = 0.0\nsamples = 20\nvalue = [[20, 0]\n[20, 0]\n[0, 20]\n[20, 0]\n[20, 0]]", fillcolor="#e58139"] ;
336 -> 337 ;
338 [label="gini = 0.0\nsamples = 4\nvalue = [[4, 0]\n[0, 4]\n[4, 0]\n[4, 0]\n[4, 0]]", fillcolor="#e58139"] ;
336 -> 338 ;
339 [label="gini = 0.0\nsamples = 387\nvalue = [[0, 387]\n[387, 0]\n[387, 0]\n[387, 0]\n[387, 0]]", fillcolor="#e58139"] ;
335 -> 339 ;
340 [label="gini = 0.0\nsamples = 3\nvalue = [[3, 0]\n[0, 3]\n[3, 0]\n[3, 0]\n[3, 0]]", fillcolor="#e58139"] ;
332 -> 340 ;
341 [label="dst_host_count <= 11.5\ngini = 0.003\nsamples = 957\nvalue = [[956, 1]\n[3, 954]\n[957, 0]\n[957, 0]\n[955, 2]]", fillcolor="#e5823b"] ;
331 -> 341 ;
342 [label="gini = 0.0\nsamples = 2\nvalue = [[2, 0]\n[2, 0]\n[2, 0]\n[2, 0]\n[0, 2]]", fillcolor="#e58139"] ;
341 -> 342 ;
343 [label="wrong_fragment <= 1.5\ngini = 0.001\nsamples = 955\nvalue = [[954, 1]\n[1, 954]\n[955, 0]\n[955, 0]\n[955, 0]]", fillcolor="#e5813a"] ;
341 -> 343 ;
344 [label="gini = 0.0\nsamples = 954\nvalue = [[954, 0]\n[0, 954]\n[954, 0]\n[954, 0]\n[954, 0]]", fillcolor="#e58139"] ;
343 -> 344 ;
345 [label="gini = 0.0\nsamples = 1\nvalue = [[0, 1]\n[1, 0]\n[1, 0]\n[1, 0]\n[1, 0]]", fillcolor="#e58139"] ;
343 -> 345 ;
346 [label="gini = 0.0\nsamples = 1051\nvalue = [[1051, 0]\n[1051, 0]\n[0, 1051]\n[1051, 0]\n[1051, 0]]", fillcolor="#e58139"] ;
330 -> 346 ;
}